//Numpy array shape [4, 10, 1, 20]
//Min -0.861522853374
//Max 0.957077085972
//Number of zeros 0

#ifndef W2_H_
#define W2_H_

#ifndef __SYNTHESIS__
conv2d_0_weight_t w2[800];
#else
conv2d_0_weight_t w2[800] = {0.2001016438, 0.5162842274, -0.0213994812, -0.3139104843, 0.0252484977, 0.0213723835, 0.1097026467, 0.3371485174, 0.8763988614, 0.1856020093, 0.0283239353, -0.2499049157, 0.1866842061, -0.1514416933, 0.0414617211, 0.6054360867, -0.1553577632, 0.1128308997, -0.0194323566, 0.0920732096, -0.0601775981, 0.0947407633, -0.0050897910, -0.0053666183, -0.0015153288, -0.1655765772, 0.1593595147, 0.2059360147, 0.2774672210, 0.1307567209, -0.0446217433, 0.1622214913, 0.1165721789, -0.0008047969, -0.0116974702, 0.1408325434, -0.0716849193, 0.0594732724, 0.0289511885, 0.0874742046, -0.1365022510, 0.0833943784, -0.0449246280, -0.1698601693, 0.0075030685, 0.0963175148, 0.1574859172, -0.0554032959, 0.4068931639, 0.0742688626, -0.0009047738, -0.1187836975, 0.0692874566, 0.1790312678, 0.0450150669, 0.1186718047, -0.0725212842, 0.0030055970, -0.0271101799, 0.1428938806, 0.0175645724, -0.0833062306, -0.0929233208, 0.0285184309, -0.0205043089, -0.1530436873, 0.0622475483, -0.4701691866, 0.3851087689, -0.0389473438, 0.0274066273, 0.0046347002, 0.1247623116, 0.2573942840, 0.0911982134, 0.3472786248, -0.1257802993, -0.0495004058, -0.0384938940, 0.1547582150, 0.2718755007, -0.0427619703, -0.1933822632, -0.1928765625, -0.0848373249, 0.1979220957, 0.0405516364, -0.4309728444, 0.4491501749, 0.0402855724, 0.0838940516, -0.0462902486, 0.0189324114, 0.1696115583, 0.0026625544, 0.0070727631, -0.1934801042, -0.0571310297, -0.1036676168, 0.0275895484, 0.2177469879, 0.0372526757, -0.0277352110, -0.0661709905, -0.1670129448, -0.1237904802, 0.1283722073, -0.2986938655, 0.4034974873, 0.2132406235, 0.0473401025, -0.0961163044, -0.1178284287, -0.1514050066, 0.1106439829, 0.0895641744, -0.4438858330, 0.0244356673, -0.2957910299, 0.0562162772, -0.0638338104, 0.1104601547, 0.3073114455, -0.0854330510, -0.0720719025, 0.0292471889, 0.2435007691, -0.2408408821, 0.4626833498, 0.2867646515, 0.1756596267, 0.0333510451, -0.3319554627, -0.0186469723, -0.0309045669, 0.3570590913, -0.4551156759, 0.1130581871, -0.1637998223, -0.0559316054, -0.3205402792, 0.0525554381, 0.6251444221, -0.1458820552, 0.2898049653, -0.0429564454, 0.0384368710, -0.1594198197, 0.3191525638, 0.1710940897, 0.3379705846, 0.0934085548, -0.2113629878, 0.2433814108, 0.1829391569, -0.0098683331, 0.1677501053, 0.1966259181, -0.0530891009, -0.1036696509, -0.2876762450, 0.0723359808, 0.6361306906, -0.0269490480, 0.5153325796, 0.0328065380, -0.2384089231, -0.2886269093, -0.0568472147, -0.2897160649, 0.4489627779, -0.1928808391, -0.4373573661, 0.5425983667, 0.1425165981, 0.1455387026, 0.4632564783, 0.1137728840, -0.0724997893, -0.2398665547, -0.1204819307, 0.4673317075, 0.3653830886, -0.0404911898, 0.4165683985, -0.1009738520, -0.6220568419, -0.4446914196, 0.9570770860, -0.4893534780, 0.3541615903, 0.0196187962, -0.6207482815, 0.5895776153, -0.2233359516, 0.7018539906, 0.5060730577, -0.3133424222, 0.3272306025, -0.4995640218, 0.1152860597, -0.2002833188, -0.0033692517, -0.1184673831, 0.1111869439, 0.7696089149, -0.0117321685, -0.0218863487, 0.0462139398, -0.1274695992, 0.1070668623, 0.2106973529, 0.0201392677, 0.0554288886, 0.1077497825, -0.0866789296, 0.2112815976, 0.1730833054, -0.0238097012, 0.0582633428, 0.0196744334, 0.3723661005, -0.0249561071, 0.1579818577, 0.0480914935, 0.3808708787, -0.0850048661, 0.0717217401, -0.1094219983, -0.0745892152, 0.0938836634, -0.1720567495, -0.0817107856, -0.0103187254, 0.1520058066, 0.2634105980, 0.1820745170, -0.0310911760, -0.2066815943, 0.0188890789, 0.0110323327, 0.0309510380, -0.0055532735, -0.0261516590, -0.0001781382, 0.2108786553, -0.0808458179, 0.0898608118, 0.1092160121, 0.0522436611, 0.1037709340, 0.0532592125, 0.0049748640, -0.0012254259, 0.1484589726, -0.2411115915, 0.1876194030, -0.0078141456, -0.1875998527, 0.0010439925, -0.1224866509, -0.0730446428, -0.0307968482, -0.1711436063, -0.0657694265, 0.5382665396, 0.0311932601, 0.0641144067, 0.0284947436, 0.2292197645, 0.0343669653, 0.2829078436, -0.1088186353, 0.0314491726, 0.1841864288, 0.1170837656, 0.1992683560, -0.0045063673, -0.1603945941, 0.0917224735, -0.1475286335, 0.2136007696, -0.0238489993, 0.0687555969, -0.0538077503, 0.4831416905, 0.0417729393, -0.0038047885, -0.2105371505, 0.3032746911, 0.1237317696, -0.3076123893, -0.0318534039, -0.0102137290, 0.0745335370, 0.0590070747, 0.2286408991, -0.0402759090, -0.0577148013, 0.0046560210, 0.0455520153, 0.0398338735, 0.1359185874, 0.1633099020, 0.0764363110, 0.3501762450, 0.0414084718, -0.0483900085, 0.1998145282, 0.0594449081, 0.1833240241, -0.0098918770, -0.1536658257, -0.0789616257, -0.0472740568, -0.1606419832, 0.0927049890, -0.1088114306, -0.3017901480, 0.0012552975, 0.2188805193, 0.2107536048, 0.2387195379, -0.2151884735, 0.3381964266, 0.4172742665, 0.1265960485, -0.0684142113, 0.0885130316, -0.2414516062, 0.0380406082, 0.4493075013, 0.0321971215, -0.1482055038, -0.1232383326, 0.3706973791, -0.0048291762, -0.0372553840, -0.4076869190, -0.0756882504, 0.2933595181, -0.1415579617, 0.3378944993, -0.1207185015, 0.3488094807, 0.2611569464, 0.3358314633, 0.0468100570, -0.2079004943, -0.3052146733, -0.1989970952, -0.0212779399, 0.0767709538, -0.1801735163, -0.2190093398, -0.1314898431, -0.0963093713, 0.4105893373, -0.2423245460, 0.1109535098, 0.1088431403, 0.0890551656, 0.3648385108, 0.3573443294, 0.3486048877, 0.3271001875, 0.4002336264, 0.1101640165, 0.0565098673, -0.3039865792, -0.3413707614, -0.3398358822, 0.0247636829, -0.1287904531, -0.5760747194, -0.1136725247, -0.0387142003, 0.6891065836, 0.1931032538, 0.0347076319, -0.1303569674, 0.1455033720, 0.2664428949, -0.2535889149, 0.1047943756, 0.4531938136, 0.2252810150, 0.2466258258, 0.0915955156, -0.2547444105, -0.3869489133, 0.2158175707, 0.1795249283, -0.0103082266, -0.8321568966, 0.2036377341, 0.2270363122, 0.7442932725, 0.6099346876, -0.1494222134, 0.1711554378, -0.4815796316, 0.0846460313, -0.5114848018, 0.0877420306, 0.0047036791, -0.0980892777, -0.0760956481, -0.1011910439, -0.2573079765, 0.0621715486, -0.0863142833, 0.0343294479, -0.2200168967, 0.0130117536, -0.4990293086, -0.0785904452, -0.0418003835, -0.0282974504, 0.0515447147, 0.0728659406, 0.0775514543, 0.0314377919, -0.3156069815, -0.0635854080, 0.2213016152, 0.0519180968, -0.0950456932, 0.2580778599, 0.0404666737, -0.0626257658, -0.0015880830, 0.0025008908, -0.1136088297, -0.0441954359, -0.3517304659, -0.2032302320, 0.0338644236, 0.0448328741, -0.0307513066, -0.0304210596, 0.0284526944, 0.0227352995, -0.0098790238, -0.0734662712, -0.0391583294, 0.0582838356, -0.0769245923, -0.1150625199, 0.0646874160, -0.0576212332, 0.0153226433, 0.0562887192, 0.0328329802, 0.0681301132, -0.2107166052, -0.1086471826, 0.0050897915, -0.0247770101, 0.0500010364, -0.0027098649, -0.1055058762, -0.0056171999, -0.3795161843, -0.0396972150, 0.0228912365, 0.0126470467, 0.0258224383, -0.0550511591, -0.0839956030, 0.0107833454, -0.1901946515, 0.0349124856, 0.1708942652, 0.0172511283, -0.1355834752, -0.0009096343, 0.0132406065, 0.0214580614, -0.0287327934, 0.0656222850, -0.1773478091, -0.0509672202, -0.3635902405, -0.0207184181, 0.1693321168, -0.0622291043, 0.1838044673, 0.0795718580, -0.2574830353, 0.0537951849, 0.1003818437, 0.0584411845, 0.0701549947, -0.0223253462, -0.1650504321, 0.1532707065, 0.0075273924, -0.0797853395, -0.0065048430, 0.1980481744, -0.1049346402, 0.1363920122, -0.1893692166, 0.0055844197, -0.0736945868, -0.0187823754, 0.1240322888, 0.0370910317, -0.1516026855, -0.0042603170, -0.1006857827, -0.0849807411, -0.1403242499, 0.0740263611, -0.2834270000, 0.1487311572, 0.0940690488, -0.1406681836, 0.1010179520, 0.3080411255, -0.0581173152, 0.2270333022, -0.3848726749, -0.1086370945, 0.1680330187, 0.2054550797, 0.0547478013, -0.0492079854, 0.2054797560, -0.1542651653, -0.1159344390, -0.0380292945, -0.2047631443, -0.0856839120, -0.3755142391, 0.0204792209, 0.1370273381, -0.0830788836, 0.2413054258, -0.1011664048, -0.1499237865, 0.2749479115, -0.1876528114, -0.2172348052, 0.1928920150, 0.3725168705, -0.0715636313, 0.0485872701, 0.4312904179, -0.2674167454, -0.0362801366, 0.0107472651, -0.0023517781, 0.0383703820, -0.0971622840, -0.1670460850, -0.2028870285, 0.1751312762, 0.3122402132, -0.4748313427, 0.0705375075, -0.0301490873, -0.0401434191, -0.1967475265, -0.1314871013, 0.4163277745, -0.1041288301, -0.0064274878, 0.3383845091, -0.2562656105, -0.0807195082, -0.2680355608, 0.3186692894, 0.1228793859, -0.0681676790, -0.0677825287, -0.7035912275, 0.2645223737, 0.4583644569, -0.4188130498, -0.4210191369, -0.2342867404, -0.6437329054, -0.0109238401, 0.2573018968, 0.1160743237, 0.0342963226, 0.0671089217, -0.0070345262, -0.2322314233, -0.1366994679, -0.4421337247, 0.2785828710, -0.1194720268, -0.6155161262, 0.2147420347, -0.7880237103, -0.0742281005, 0.5753796697, 0.0912389085, -0.3773512840, 0.0037556703, -0.2281101942, -0.1416665614, -0.0881543681, -0.3473973572, 0.0034565746, 0.0812137723, 0.1652184576, 0.0812129974, -0.8615228534, 0.0551235452, -0.1849352717, 0.0382239334, 0.0832263753, -0.3131728470, 0.0677723289, 0.0540427342, 0.0965814814, -0.0938006788, -0.3245165944, -0.0356408730, 0.0943714827, -0.1257485747, 0.0299447905, -0.1492780894, -0.0173350479, 0.1067336872, 0.1602999419, -0.0435943864, -0.2114640623, -0.0144105358, -0.1012110934, 0.0431309678, -0.0125522288, -0.1465650052, -0.0541502163, -0.0931218192, 0.0260040164, -0.1030837148, 0.2573476732, 0.0143031692, -0.0164393652, -0.0520812944, -0.0039230064, 0.0499522164, -0.1130813658, -0.0777352601, 0.0578575879, -0.1248262152, -0.1712322235, -0.0921834037, -0.1161158755, 0.1028100997, 0.1374176443, -0.0350313932, -0.0115900375, -0.1092582941, 0.1416997761, 0.1090053245, 0.1602872163, 0.0850510150, -0.0020127918, -0.0116831008, -0.1249132901, 0.0365607552, -0.0984446630, 0.2172699720, 0.0695009977, -0.1632663459, -0.3519453704, -0.1229655817, -0.1000707820, 0.0174354371, -0.0640207902, -0.0456756130, -0.1123477295, -0.2071476728, 0.0811196417, 0.2311545759, -0.2071338296, 0.1048110425, -0.0352706090, -0.0364076160, 0.1553989798, -0.0766353980, 0.0918937176, 0.0683611855, 0.1482807398, -0.1382738948, -0.3519651890, -0.0212000087, -0.0592905767, 0.0884531140, 0.0206760187, -0.1268833280, -0.0748167187, -0.2234874368, 0.1029311568, 0.1532510221, 0.0446884297, 0.1795771867, -0.0971457735, -0.1844729781, -0.1308217794, -0.3045015931, 0.2228855342, -0.1232434064, 0.1784214377, -0.0488834418, -0.2290298045, 0.0660140738, -0.0740318447, -0.0463229232, 0.1426627934, -0.2590322196, -0.0063723745, -0.1027958244, 0.0773845240, -0.2393172681, -0.0790481418, 0.0436187424, 0.2105141282, -0.2948344946, -0.0637625828, -0.3308347166, 0.3889199495, 0.2452687323, 0.1422238201, -0.0504557751, -0.4828241467, 0.2123465687, 0.0264410209, 0.0409429930, -0.2747856677, -0.0155864367, 0.0584714189, -0.1123310328, -0.0402476937, -0.3760122359, 0.0056397263, -0.0932222903, -0.2228897065, -0.0498874635, 0.0682290718, -0.0612029545, 0.4011240602, -0.0745790154, -0.2132383585, -0.2024671137, -0.1903373003, 0.4402717650, 0.1119389981, 0.0096253082, 0.1835056990, 0.3048149049, 0.2761038244, 0.0828081593, -0.0790881515, -0.3987416625, -0.2400235236, -0.4319655001, 0.1065005288, 0.2322079092, 0.0083249323, 0.3508635163, 0.2211824805, -0.0015026730, -0.5591953993, -0.3258708715, -0.1117970422, 0.4473111629, 0.0934989154, -0.0655986816, -0.0039116917, 0.3309608996, 0.2218839377, 0.2926255465, -0.1198024824, -0.2559132874, -0.4592947960, -0.5923908353, 0.0107729342, 0.3530417979, -0.1903700233, 0.4353660047, 0.0572684705, 0.1542062163, -0.6832385659, -0.3518371880, -0.8070839643, 0.1824131310, -0.0025181801, -0.3475396931, -0.0392435677, 0.2377240956, -0.0275367294, 0.4727100134, -0.1909876466};
#endif

#endif
